{
  "version": "stage2_v0_ovr_logreg",
  "generated_utc": "2026-03-12T13:38:41Z",
  "dataset_csv": "squat_dataset/squat_features_augmented.csv",
  "holdout_videos": [
    "co7.mp4",
    "co8.mp4",
    "co9.mp4"
  ],
  "n_classes": 6,
  "class_names": [
    "correct",
    "shallow_squat",
    "forward_lean",
    "knees_caving_in",
    "heels_off_ground",
    "asymmetric_squat"
  ],
  "feature_names": [
    "left_knee_angle",
    "right_knee_angle",
    "left_hip_angle",
    "right_hip_angle",
    "left_ankle_angle",
    "right_ankle_angle",
    "spine_angle",
    "torso_lean",
    "left_knee_lateral",
    "right_knee_lateral",
    "symmetry_score",
    "hip_depth",
    "knee_avg",
    "hip_avg",
    "ankle_avg",
    "knee_diff",
    "hip_diff",
    "ankle_diff",
    "torso_minus_spine",
    "knee_lateral_avg"
  ],
  "standardization": {
    "mean": [
      67.99098109611013,
      64.26855347770143,
      90.65982501412277,
      90.14221809753545,
      43.54661497589318,
      42.621791627368395,
      87.30449722996032,
      99.6037303392979,
      0.10158940772806163,
      0.08982879893742712,
      13.873270623541384,
      0.583808710699612,
      66.12976728690626,
      90.40102155582822,
      43.08420330163054,
      8.85100075356483,
      7.216462903923678,
      3.365926615642814,
      12.299233109339692,
      0.09570910333274388
    ],
    "std": [
      43.810183653750606,
      41.4569796902213,
      49.035218736098415,
      49.83124948025294,
      18.783533406793513,
      17.403638511007944,
      48.984550054270095,
      12.449410407477316,
      0.047082937070542966,
      0.04786280269401859,
      13.550683260830482,
      0.08043664618944811,
      42.18920166344901,
      49.18422139566195,
      17.917896806705023,
      9.582693705825475,
      6.859463929976011,
      4.09111887789496,
      52.95160129192837,
      0.044224884741697175
    ]
  },
  "ovr_weights": [
    [
      -2.433761582982111,
      -0.2992158353033969,
      0.13100692982893017,
      -7.615233805504267,
      0.3170102174572561,
      0.5696511956188797,
      -1.3648389989284329,
      6.170127613746655,
      1.2072712007266797,
      -0.28825909113324455,
      -0.2632340766036213,
      1.675165895419274,
      -0.1581783399119699,
      -0.09098950400628346,
      -3.6354915255106066,
      -0.3642476134549905,
      -1.5283033191158024,
      -0.7731949820165699,
      -0.33312722913865433,
      -5.424030686105098,
      -0.2958877730435818
    ],
    [
      -2.8381802525376956,
      0.0957138215258805,
      1.2023521833917752,
      11.425559959281847,
      -0.4724216754173266,
      0.3485591713063449,
      -1.0197845568846062,
      -9.283511391811473,
      -2.731406311735149,
      -0.2919218560384577,
      1.086658797668445,
      -0.8162391808034304,
      0.8177060481212909,
      0.6404379321715871,
      5.456154984142139,
      -0.3125586967455833,
      0.15432839994583944,
      0.5352567987457194,
      0.05088626353016897,
      7.945826377706709,
      0.43262970016369406
    ],
    [
      -3.3571739993784933,
      1.4932470889029068,
      -2.438968907945131,
      11.971139321054336,
      -0.9958992638338389,
      0.29009906034295874,
      -0.10347480514481452,
      -8.913024582461365,
      -0.28232996131942645,
      0.6035711501616684,
      -0.9926216906156479,
      1.706623679039017,
      -0.2509802358350527,
      -0.42300937051649473,
      5.462936234488212,
      0.10180456241182463,
      -1.5370873848278401,
      -0.8715857660844384,
      0.1268381378337051,
      8.17889632549682,
      -0.21584854046077842
    ],
    [
      -2.7314327057180128,
      -1.0772021323104266,
      0.99580392714079,
      -7.967537649672442,
      2.8712270961574826,
      0.42138106683327436,
      -0.7186646557050698,
      4.604679206797625,
      0.8048277783576907,
      0.4899818629657949,
      0.599468628157392,
      0.9144879158835139,
      -0.1837024115608131,
      -0.07003450922056365,
      -2.517200747215091,
      -0.12814993250094278,
      -0.553920304521486,
      -0.877840420688813,
      -0.2537530334073329,
      -4.070481392636669,
      0.5852138925041986
    ],
    [
      -3.0935252765777737,
      0.5140901746549839,
      -1.9454217480263254,
      -6.899734938718494,
      1.3614407558814157,
      -2.073493700956395,
      3.7565094355902957,
      4.2743359022994625,
      0.8041663749232683,
      0.45429442731780706,
      -0.8694857019716266,
      2.0965172675400345,
      -0.3264029684809495,
      -0.6889076189960152,
      -2.749740773634555,
      0.7375138489921227,
      -1.1760677458638151,
      -0.5866285675919812,
      0.7962191828857499,
      -3.7650423944408185,
      -0.228677890106132
    ],
    [
      -2.3384851727007123,
      -1.0811443850358757,
      1.1320258378402521,
      -6.669192097491611,
      0.17205869323768433,
      0.996294223732859,
      -1.0973524696068166,
      5.398415624636067,
      0.9356161870906982,
      -0.5450502396542334,
      0.0256901247254072,
      -2.715032037776374,
      -0.23227349959763585,
      -0.005152525757220585,
      -3.2373328741325964,
      -0.010715539604344803,
      2.274443521761527,
      1.0228730562265316,
      -0.4434261821788973,
      -4.7740027556125995,
      -0.27623548264412645
    ]
  ],
  "metrics_group_split": {
    "accuracy": 0.6113374066530889,
    "balanced_accuracy": 0.6113374066530889,
    "macro_f1": 0.6089408176434791,
    "per_class": {
      "0": {
        "precision": 0.539622641509434,
        "recall": 0.6795655125594026,
        "f1": 0.6015625,
        "support": 1473
      },
      "1": {
        "precision": 0.674074074074074,
        "recall": 0.8649015614392397,
        "f1": 0.7576568539994053,
        "support": 1473
      },
      "2": {
        "precision": 0.8801534036433365,
        "recall": 0.6232179226069247,
        "f1": 0.7297297297297298,
        "support": 1473
      },
      "3": {
        "precision": 0.5773651635720601,
        "recall": 0.44331296673455534,
        "f1": 0.5015360983102919,
        "support": 1473
      },
      "4": {
        "precision": 0.48133333333333334,
        "recall": 0.49015614392396467,
        "f1": 0.4857046754120417,
        "support": 1473
      },
      "5": {
        "precision": 0.5884425651867512,
        "recall": 0.5668703326544468,
        "f1": 0.5774550484094053,
        "support": 1473
      }
    },
    "binary_bad": {
      "precision": 0.9324072748102534,
      "recall": 0.8840461642905635,
      "f1": 0.9075829383886256,
      "tp": 6511,
      "fp": 472,
      "tn": 1001,
      "fn": 854
    }
  }
}